FANN_FLO_2.1
num_layers=3
learning_rate=0.700000
connection_rate=1.000000
network_type=0
learning_momentum=0.000000
training_algorithm=2
train_error_function=1
train_stop_function=0
cascade_output_change_fraction=0.010000
quickprop_decay=-0.000100
quickprop_mu=1.750000
rprop_increase_factor=1.200000
rprop_decrease_factor=0.500000
rprop_delta_min=0.000000
rprop_delta_max=50.000000
rprop_delta_zero=0.100000
cascade_output_stagnation_epochs=12
cascade_candidate_change_fraction=0.010000
cascade_candidate_stagnation_epochs=12
cascade_max_out_epochs=150
cascade_max_cand_epochs=150
cascade_num_candidate_groups=2
bit_fail_limit=3.49999994039535522461e-01
cascade_candidate_limit=1.00000000000000000000e+03
cascade_weight_multiplier=4.00000005960464477539e-01
cascade_activation_functions_count=10
cascade_activation_functions=3 5 7 8 10 11 14 15 16 17 
cascade_activation_steepnesses_count=4
cascade_activation_steepnesses=2.50000000000000000000e-01 5.00000000000000000000e-01 7.50000000000000000000e-01 1.00000000000000000000e+00 
layer_sizes=12 101 2 
scale_included=0
neurons (num_inputs, activation_function, activation_steepness)=(0, 0, 0.00000000000000000000e+00) (0, 0, 0.00000000000000000000e+00) (0, 0, 0.00000000000000000000e+00) (0, 0, 0.00000000000000000000e+00) (0, 0, 0.00000000000000000000e+00) (0, 0, 0.00000000000000000000e+00) (0, 0, 0.00000000000000000000e+00) (0, 0, 0.00000000000000000000e+00) (0, 0, 0.00000000000000000000e+00) (0, 0, 0.00000000000000000000e+00) (0, 0, 0.00000000000000000000e+00) (0, 0, 0.00000000000000000000e+00) (12, 5, 5.00000000000000000000e-01) (12, 5, 5.00000000000000000000e-01) (12, 5, 5.00000000000000000000e-01) (12, 5, 5.00000000000000000000e-01) (12, 5, 5.00000000000000000000e-01) (12, 5, 5.00000000000000000000e-01) (12, 5, 5.00000000000000000000e-01) (12, 5, 5.00000000000000000000e-01) (12, 5, 5.00000000000000000000e-01) (12, 5, 5.00000000000000000000e-01) (12, 5, 5.00000000000000000000e-01) (12, 5, 5.00000000000000000000e-01) (12, 5, 5.00000000000000000000e-01) (12, 5, 5.00000000000000000000e-01) (12, 5, 5.00000000000000000000e-01) (12, 5, 5.00000000000000000000e-01) (12, 5, 5.00000000000000000000e-01) (12, 5, 5.00000000000000000000e-01) (12, 5, 5.00000000000000000000e-01) (12, 5, 5.00000000000000000000e-01) (12, 5, 5.00000000000000000000e-01) (12, 5, 5.00000000000000000000e-01) (12, 5, 5.00000000000000000000e-01) (12, 5, 5.00000000000000000000e-01) (12, 5, 5.00000000000000000000e-01) (12, 5, 5.00000000000000000000e-01) (12, 5, 5.00000000000000000000e-01) (12, 5, 5.00000000000000000000e-01) (12, 5, 5.00000000000000000000e-01) (12, 5, 5.00000000000000000000e-01) (12, 5, 5.00000000000000000000e-01) (12, 5, 5.00000000000000000000e-01) (12, 5, 5.00000000000000000000e-01) (12, 5, 5.00000000000000000000e-01) (12, 5, 5.00000000000000000000e-01) (12, 5, 5.00000000000000000000e-01) (12, 5, 5.00000000000000000000e-01) (12, 5, 5.00000000000000000000e-01) (12, 5, 5.00000000000000000000e-01) (12, 5, 5.00000000000000000000e-01) (12, 5, 5.00000000000000000000e-01) (12, 5, 5.00000000000000000000e-01) (12, 5, 5.00000000000000000000e-01) (12, 5, 5.00000000000000000000e-01) (12, 5, 5.00000000000000000000e-01) (12, 5, 5.00000000000000000000e-01) (12, 5, 5.00000000000000000000e-01) (12, 5, 5.00000000000000000000e-01) (12, 5, 5.00000000000000000000e-01) (12, 5, 5.00000000000000000000e-01) (12, 5, 5.00000000000000000000e-01) (12, 5, 5.00000000000000000000e-01) (12, 5, 5.00000000000000000000e-01) (12, 5, 5.00000000000000000000e-01) (12, 5, 5.00000000000000000000e-01) (12, 5, 5.00000000000000000000e-01) (12, 5, 5.00000000000000000000e-01) (12, 5, 5.00000000000000000000e-01) (12, 5, 5.00000000000000000000e-01) (12, 5, 5.00000000000000000000e-01) (12, 5, 5.00000000000000000000e-01) (12, 5, 5.00000000000000000000e-01) (12, 5, 5.00000000000000000000e-01) (12, 5, 5.00000000000000000000e-01) (12, 5, 5.00000000000000000000e-01) (12, 5, 5.00000000000000000000e-01) (12, 5, 5.00000000000000000000e-01) (12, 5, 5.00000000000000000000e-01) (12, 5, 5.00000000000000000000e-01) (12, 5, 5.00000000000000000000e-01) (12, 5, 5.00000000000000000000e-01) (12, 5, 5.00000000000000000000e-01) (12, 5, 5.00000000000000000000e-01) (12, 5, 5.00000000000000000000e-01) (12, 5, 5.00000000000000000000e-01) (12, 5, 5.00000000000000000000e-01) (12, 5, 5.00000000000000000000e-01) (12, 5, 5.00000000000000000000e-01) (12, 5, 5.00000000000000000000e-01) (12, 5, 5.00000000000000000000e-01) (12, 5, 5.00000000000000000000e-01) (12, 5, 5.00000000000000000000e-01) (12, 5, 5.00000000000000000000e-01) (12, 5, 5.00000000000000000000e-01) (12, 5, 5.00000000000000000000e-01) (12, 5, 5.00000000000000000000e-01) (12, 5, 5.00000000000000000000e-01) (12, 5, 5.00000000000000000000e-01) (12, 5, 5.00000000000000000000e-01) (12, 5, 5.00000000000000000000e-01) (12, 5, 5.00000000000000000000e-01) (12, 5, 5.00000000000000000000e-01) (12, 5, 5.00000000000000000000e-01) (12, 5, 5.00000000000000000000e-01) (12, 5, 5.00000000000000000000e-01) (12, 5, 5.00000000000000000000e-01) (12, 5, 5.00000000000000000000e-01) (12, 5, 5.00000000000000000000e-01) (12, 5, 5.00000000000000000000e-01) (12, 5, 5.00000000000000000000e-01) (0, 5, 0.00000000000000000000e+00) (101, 5, 5.00000000000000000000e-01) (0, 5, 0.00000000000000000000e+00) 
connections (connected_to_neuron, weight)=(0, -1.43473672866821289062e+01) (1, 1.22020828723907470703e+00) (2, 3.73291909694671630859e-01) (3, 2.88553535938262939453e-01) (4, 4.19394582509994506836e-01) (5, 6.19551897048950195312e+00) (6, 4.76925402879714965820e-01) (7, 3.93909186124801635742e-01) (8, -1.10824012756347656250e+00) (9, 3.45101863145828247070e-01) (10, 1.83281624317169189453e+00) (11, 2.82762318849563598633e-01) (0, 4.50376844406127929688e+00) (1, 3.68869230151176452637e-02) (2, -6.19183480739593505859e-02) (3, -1.95051282644271850586e-01) (4, -1.47240713238716125488e-01) (5, -2.69851207733154296875e-01) (6, -6.96048587560653686523e-02) (7, -2.86718755960464477539e-01) (8, -1.23511694371700286865e-01) (9, -6.11830614507198333740e-02) (10, -4.54208515584468841553e-02) (11, -2.97012925148010253906e-01) (0, 3.86600041389465332031e+00) (1, 1.37023806571960449219e-01) (2, -1.76114290952682495117e-01) (3, -5.28491064906120300293e-02) (4, -6.27826899290084838867e-02) (5, -9.08374115824699401855e-02) (6, -8.95032137632369995117e-02) (7, -2.09748283028602600098e-01) (8, -8.20636078715324401855e-02) (9, -8.80488567054271697998e-03) (10, -1.79730495437979698181e-03) (11, -1.76227703690528869629e-01) (0, 3.96581220626831054688e+00) (1, 2.74826884269714355469e-02) (2, -1.76735237240791320801e-01) (3, -7.59505778551101684570e-02) (4, -1.55194997787475585938e-01) (5, 9.79003310203552246094e-01) (6, -5.04575744271278381348e-02) (7, -3.44234704971313476562e-01) (8, -2.20594429969787597656e+00) (9, -8.63996371626853942871e-02) (10, -6.19696497917175292969e-01) (11, -4.20175284147262573242e-01) (0, 3.07212561368942260742e-01) (1, -2.61857192963361740112e-02) (2, 5.59309013187885284424e-02) (3, -1.21144570410251617432e-01) (4, -7.81349763274192810059e-02) (5, -2.58987158536911010742e-01) (6, 9.26351845264434814453e-02) (7, 7.69228786230087280273e-02) (8, -2.25175261497497558594e-01) (9, 1.12055413424968719482e-01) (10, -7.02883377671241760254e-02) (11, 1.53160274028778076172e-01) (0, 3.91914796829223632812e+00) (1, 8.11128690838813781738e-02) (2, -5.94752356410026550293e-02) (3, -6.41523122787475585938e-01) (4, -1.08891762793064117432e-01) (5, -3.34135794639587402344e+00) (6, -1.28611549735069274902e-01) (7, -1.75649926066398620605e-01) (8, 4.63399827480316162109e-01) (9, -1.03501856327056884766e-01) (10, 3.01363587379455566406e-01) (11, -2.29830011725425720215e-01) (0, -4.24701642990112304688e+00) (1, 2.87456866353750228882e-02) (2, 5.47092676162719726562e-01) (3, 5.22885918617248535156e-01) (4, 4.60031926631927490234e-01) (5, 2.80978173017501831055e-01) (6, 3.66390764713287353516e-01) (7, 4.64458703994750976562e-01) (8, 5.23513019084930419922e-01) (9, 4.04050201177597045898e-01) (10, 5.03417849540710449219e-01) (11, 5.79331457614898681641e-01) (0, -4.15422344207763671875e+00) (1, -1.84703450649976730347e-02) (2, 3.86235147714614868164e-01) (3, 5.02913653850555419922e-01) (4, 4.46977496147155761719e-01) (5, 2.14962184429168701172e-01) (6, 3.79306584596633911133e-01) (7, 5.40220439434051513672e-01) (8, 5.25829434394836425781e-01) (9, 4.61984783411026000977e-01) (10, 4.76799309253692626953e-01) (11, 4.21494126319885253906e-01) (0, -8.89946937561035156250e+00) (1, 1.44653248786926269531e+00) (2, 3.35000783205032348633e-01) (3, -9.41624164581298828125e-01) (4, 3.61153393983840942383e-01) (5, -5.16726922988891601562e+00) (6, 5.29116809368133544922e-01) (7, 3.46341192722320556641e-01) (8, -1.50508952140808105469e+00) (9, 4.06527012586593627930e-01) (10, 5.37279069423675537109e-01) (11, 2.91349947452545166016e-01) (0, 1.66152236938476562500e+02) (1, 1.24690365791320800781e+00) (2, 1.15445160865783691406e+00) (3, 2.46085375547409057617e-01) (4, 3.66397351026535034180e-01) (5, 1.00416743755340576172e+00) (6, 4.99642848968505859375e-01) (7, 3.75200957059860229492e-01) (8, 6.72412276268005371094e-01) (9, 4.20019954442977905273e-01) (10, 4.21997398138046264648e-01) (11, 3.10405224561691284180e-01) (0, 8.23979568481445312500e+00) (1, 1.97828680276870727539e-01) (2, -2.39780079573392868042e-02) (3, -7.17934668064117431641e-01) (4, -5.87535388767719268799e-02) (5, -3.60818529129028320312e+00) (6, -8.00370946526527404785e-02) (7, -1.26838624477386474609e-01) (8, -1.86809599399566650391e-01) (9, -3.06835006922483444214e-02) (10, -3.07674974203109741211e-01) (11, -8.29853564500808715820e-02) (0, -1.58618118286132812500e+02) (1, 2.03964874148368835449e-01) (2, 3.56514513492584228516e-01) (3, -1.35291695594787597656e-01) (4, -3.35028804838657379150e-02) (5, -2.90948241949081420898e-01) (6, 4.47869718074798583984e-01) (7, 3.42287659645080566406e-01) (8, -6.10715448856353759766e-02) (9, 4.00994680821895599365e-02) (10, 3.40174473822116851807e-02) (11, 6.28131091594696044922e-01) (0, -1.71935195922851562500e+01) (1, 1.16883575916290283203e+00) (2, 3.77270847558975219727e-01) (3, 3.76009494066238403320e-01) (4, 4.39025044441223144531e-01) (5, 6.82845413684844970703e-01) (6, 5.27934968471527099609e-01) (7, 3.82154583930969238281e-01) (8, 4.14140373468399047852e-01) (9, 4.37518388032913208008e-01) (10, 3.23600083589553833008e-01) (11, 3.14551562070846557617e-01) (0, 1.01098833084106445312e+01) (1, 3.54534953832626342773e-01) (2, 1.14241894334554672241e-02) (3, -2.41892151534557342529e-02) (4, -4.34627532958984375000e-02) (5, -7.28545486927032470703e-02) (6, 7.75871798396110534668e-02) (7, -4.55528274178504943848e-02) (8, -3.73686254024505615234e-02) (9, -1.50661200284957885742e-01) (10, 3.61922867596149444580e-02) (11, -5.57394810020923614502e-02) (0, -1.39848890304565429688e+01) (1, -4.63872849941253662109e-01) (2, -5.01155257225036621094e-02) (3, 1.16842471063137054443e-01) (4, 6.94748610258102416992e-02) (5, -2.46192514896392822266e-01) (6, 3.05458288639783859253e-02) (7, 6.13577365875244140625e-02) (8, -1.53478886932134628296e-02) (9, 1.29164438694715499878e-02) (10, -2.94354707002639770508e-02) (11, -8.04787705419585108757e-05) (0, 3.06267857551574707031e+00) (1, -4.00475692003965377808e-03) (2, 1.30778566002845764160e-01) (3, -1.19366016387939453125e+01) (4, -1.35935112833976745605e-01) (5, 2.98231220245361328125e+00) (6, -2.52537131309509277344e-02) (7, -2.67435699701309204102e-01) (8, 2.95180886983871459961e-01) (9, -3.68316881358623504639e-02) (10, 2.77320027351379394531e-01) (11, -1.36829927563667297363e-01) (0, 3.58872699737548828125e+00) (1, 2.86009460687637329102e-01) (2, -1.19927898049354553223e-01) (3, -6.55871033668518066406e-02) (4, -5.19485548138618469238e-02) (5, -9.58102047443389892578e-02) (6, -3.92343364655971527100e-02) (7, -2.29376986622810363770e-01) (8, 3.55684384703636169434e-03) (9, -4.69875223934650421143e-02) (10, 3.52615751326084136963e-02) (11, -8.96169990301132202148e-02) (0, -2.76712760925292968750e+01) (1, 6.83377459645271301270e-02) (2, -6.51911348104476928711e-02) (3, -6.76776282489299774170e-03) (4, -6.81163147091865539551e-02) (5, 3.34919355809688568115e-02) (6, 3.01029570400714874268e-02) (7, 4.41986843943595886230e-02) (8, 6.21176660060882568359e-01) (9, -8.02580558229237794876e-04) (10, -9.49912250041961669922e-01) (11, -1.95718601346015930176e-01) (0, 1.44538238525390625000e+02) (1, 1.18494892120361328125e+00) (2, 4.62309420108795166016e-01) (3, 4.29172635078430175781e-01) (4, 4.39205706119537353516e-01) (5, 7.15530872344970703125e-01) (6, 4.46691125631332397461e-01) (7, 4.38574790954589843750e-01) (8, 4.45146322250366210938e-01) (9, 4.39258545637130737305e-01) (10, 4.52901393175125122070e-01) (11, 3.27005654573440551758e-01) (0, -4.08771324157714843750e+01) (1, -7.61194229125976562500e-02) (2, 2.87474580109119415283e-02) (3, -1.44274294376373291016e-01) (4, -7.27025642991065979004e-02) (5, -1.96098700165748596191e-01) (6, 1.46014168858528137207e-01) (7, 8.48481506109237670898e-02) (8, -6.65181875228881835938e-01) (9, 9.53591987490653991699e-03) (10, 1.83027401566505432129e-01) (11, 1.39631718397140502930e-01) (0, -1.04457283020019531250e+01) (1, 2.13912889361381530762e-01) (2, 1.00065894424915313721e-01) (3, 4.48507100343704223633e-01) (4, 2.64106780290603637695e-01) (5, 1.04335129261016845703e+00) (6, 1.54771399497985839844e+00) (7, -8.20650234818458557129e-02) (8, 3.56667757034301757812e-01) (9, 5.64240589737892150879e-02) (10, -2.24438142776489257812e+00) (11, -1.13212361931800842285e-01) (0, -1.04785594940185546875e+01) (1, 8.51483225822448730469e-01) (2, 3.72331053018569946289e-01) (3, 4.42465007305145263672e-01) (4, 4.51767891645431518555e-01) (5, 6.80691719055175781250e-01) (6, 4.16523665189743041992e-01) (7, 2.68571645021438598633e-01) (8, 4.00989592075347900391e-01) (9, 4.17699158191680908203e-01) (10, 3.44151347875595092773e-01) (11, 3.68552744388580322266e-01) (0, 2.96243023872375488281e+00) (1, -6.06290936470031738281e-01) (2, 2.95543335378170013428e-02) (3, 1.78005647659301757812e+00) (4, 5.46718053519725799561e-02) (5, 2.11399579048156738281e+00) (6, 4.99832304194569587708e-03) (7, -1.95963650941848754883e-01) (8, -2.43380606174468994141e-01) (9, -1.13751910626888275146e-01) (10, -2.19578552246093750000e+00) (11, -1.41871750354766845703e-01) (0, 1.65927612304687500000e+02) (1, 1.28758919239044189453e+00) (2, 1.09524571895599365234e+00) (3, 3.22639107704162597656e-01) (4, 3.63185226917266845703e-01) (5, 1.11834347248077392578e+00) (6, 4.22929674386978149414e-01) (7, 3.74671608209609985352e-01) (8, 5.06661951541900634766e-01) (9, 4.48574781417846679688e-01) (10, 4.14855450391769409180e-01) (11, 4.08298164606094360352e-01) (0, -4.71476030349731445312e+00) (1, 8.29247683286666870117e-02) (2, 5.67735314369201660156e-01) (3, 6.23569130897521972656e-01) (4, 5.33005237579345703125e-01) (5, 2.43695616722106933594e-01) (6, 3.23965966701507568359e-01) (7, 4.11158442497253417969e-01) (8, 4.78038281202316284180e-01) (9, 4.50697034597396850586e-01) (10, 4.49577093124389648438e-01) (11, 4.22720611095428466797e-01) (0, -5.20015096664428710938e+00) (1, -5.46664781868457794189e-02) (2, 5.06267607212066650391e-01) (3, 5.68704605102539062500e-01) (4, 4.81668651103973388672e-01) (5, 2.17856973409652709961e-01) (6, 3.18726956844329833984e-01) (7, 5.14047205448150634766e-01) (8, 5.18474102020263671875e-01) (9, 5.51012992858886718750e-01) (10, 4.27129089832305908203e-01) (11, 4.25569891929626464844e-01) (0, -3.70629043579101562500e+01) (1, 3.85383784770965576172e-01) (2, 6.11882507801055908203e-02) (3, 1.40666086226701736450e-02) (4, 2.73343026638031005859e-02) (5, -3.19848984479904174805e-01) (6, 2.71619041450321674347e-03) (7, 9.77671742439270019531e-02) (8, -5.69793641567230224609e-01) (9, -9.38365142792463302612e-03) (10, 2.89634373039007186890e-02) (11, -3.96338514983654022217e-02) (0, -3.08036403656005859375e+01) (1, 4.45648384094238281250e+00) (2, -6.77377060055732727051e-02) (3, -9.61871266365051269531e-01) (4, 9.70120653510093688965e-02) (5, 3.08095872402191162109e-01) (6, 5.23807048797607421875e-01) (7, -1.71826153993606567383e-01) (8, 5.29275178909301757812e-01) (9, 8.97973030805587768555e-02) (10, 1.58288121223449707031e-01) (11, -7.52479851245880126953e-01) (0, -3.67617321014404296875e+00) (1, -2.28470787405967712402e-01) (2, 1.00340709090232849121e-01) (3, 3.09924818575382232666e-02) (4, 5.57235106825828552246e-02) (5, -2.02389568090438842773e-01) (6, -1.05313099920749664307e-01) (7, 3.44411619007587432861e-02) (8, 2.17138230800628662109e-01) (9, -2.38331723958253860474e-02) (10, -8.90271738171577453613e-02) (11, 5.96241019666194915771e-02) (0, -1.68471031188964843750e+01) (1, 7.36708223819732666016e-01) (2, 3.34712684154510498047e-01) (3, 3.87353122234344482422e-01) (4, 4.13186669349670410156e-01) (5, 8.02964508533477783203e-01) (6, 4.88623678684234619141e-01) (7, 2.85819351673126220703e-01) (8, 4.25871640443801879883e-01) (9, 4.17717188596725463867e-01) (10, 3.34965497255325317383e-01) (11, 4.14553225040435791016e-01) (0, -1.22696853637695312500e+02) (1, 2.25022777915000915527e-01) (2, 1.98822119273245334625e-03) (3, -1.40581473708152770996e-01) (4, -4.31673340499401092529e-02) (5, -1.29505008459091186523e-01) (6, 1.15117229521274566650e-01) (7, 4.30894434452056884766e-01) (8, -2.17908054590225219727e-01) (9, 4.17402870953083038330e-02) (10, 6.47338777780532836914e-02) (11, 4.79911446571350097656e-01) (0, 2.58132972717285156250e+01) (1, -1.33239954710006713867e-01) (2, -3.88251729309558868408e-02) (3, 7.67621248960494995117e-02) (4, -2.92480606585741043091e-02) (5, -2.53300786018371582031e-01) (6, -3.49074378609657287598e-02) (7, 1.90665125846862792969e-01) (8, -5.92158555984497070312e-01) (9, 3.55993807315826416016e-02) (10, 1.03457476943731307983e-02) (11, 1.11233338713645935059e-01) (0, -1.36877517700195312500e+02) (1, 1.33491188287734985352e-01) (2, 1.70850768685340881348e-01) (3, -1.56561478972434997559e-01) (4, -4.14465069770812988281e-02) (5, -1.26304566860198974609e-01) (6, 2.50529736280441284180e-01) (7, 3.41446220874786376953e-01) (8, 4.57120053470134735107e-02) (9, 2.12224735878407955170e-03) (10, 1.01298786699771881104e-01) (11, 3.90099018812179565430e-01) (0, -2.66296081542968750000e+01) (1, -1.29924625158309936523e-01) (2, -4.76529821753501892090e-02) (3, 5.72789795696735382080e-02) (4, 3.68450768291950225830e-02) (5, -1.02332510054111480713e-01) (6, -3.54933403432369232178e-02) (7, -4.68343608081340789795e-02) (8, 4.64931614696979522705e-02) (9, -5.96718071028590202332e-03) (10, 4.24564890563488006592e-02) (11, 7.26935639977455139160e-02) (0, 2.17370843887329101562e+00) (1, 1.50336027145385742188e+00) (2, 1.50327220559120178223e-01) (3, -1.06039791107177734375e+01) (4, -3.06564755737781524658e-02) (5, 6.08090758323669433594e-01) (6, -2.42127105593681335449e-02) (7, 7.31442213058471679688e-01) (8, 5.09993135929107666016e-01) (9, -8.86589512228965759277e-02) (10, -7.46543258428573608398e-02) (11, 6.43308222293853759766e-01) (0, -1.63430080413818359375e+01) (1, 8.08779478073120117188e-01) (2, 4.36681270599365234375e-01) (3, 2.65456706285476684570e-01) (4, 4.41765308380126953125e-01) (5, 3.66147577762603759766e-01) (6, 4.05696511268615722656e-01) (7, 3.80404084920883178711e-01) (8, 3.89366388320922851562e-01) (9, 3.44908177852630615234e-01) (10, 3.46816241741180419922e-01) (11, 2.48968809843063354492e-01) (0, 1.01150140762329101562e+01) (1, 9.78074520826339721680e-02) (2, -1.42738476395606994629e-01) (3, -1.15767627954483032227e-01) (4, 2.75133214890956878662e-02) (5, -1.11932180821895599365e-01) (6, -4.49029654264450073242e-02) (7, -9.21804830431938171387e-02) (8, -4.31998260319232940674e-03) (9, -6.68954523280262947083e-03) (10, 5.50963310524821281433e-03) (11, -1.43159449100494384766e-01) (0, -2.55591602325439453125e+01) (1, 1.29872992634773254395e-01) (2, -4.06115129590034484863e-02) (3, -3.32589596509933471680e-02) (4, -1.80048681795597076416e-02) (5, -1.52602836489677429199e-01) (6, 1.01920895278453826904e-01) (7, 1.49475047364830970764e-02) (8, -6.59349024295806884766e-01) (9, 4.96528856456279754639e-02) (10, 3.39065603911876678467e-02) (11, 7.54416510462760925293e-02) (0, 8.31055259704589843750e+00) (1, 1.26909926533699035645e-01) (2, -1.63134843111038208008e-01) (3, -1.07558608055114746094e+00) (4, -2.91333496570587158203e-01) (5, -5.77018642425537109375e+00) (6, -1.75516948103904724121e-01) (7, -1.84638842940330505371e-01) (8, 2.75530427694320678711e-01) (9, -1.93515837192535400391e-01) (10, 2.63748597353696823120e-02) (11, -2.12960898876190185547e-01) (0, -3.02676939964294433594e+00) (1, -5.34830451011657714844e-01) (2, 8.25550481677055358887e-02) (3, 2.82227069139480590820e-01) (4, -7.33333528041839599609e-02) (5, -1.09186619520187377930e-01) (6, -7.47890546917915344238e-02) (7, -2.41025891155004501343e-02) (8, 9.33240652084350585938e-02) (9, -5.04084071144461631775e-03) (10, 1.65039871353656053543e-03) (11, 1.30752902477979660034e-02) (0, -4.76217937469482421875e+00) (1, -6.31292089819908142090e-02) (2, 5.17167389392852783203e-01) (3, 4.95193123817443847656e-01) (4, 5.39425313472747802734e-01) (5, 2.26818442344665527344e-01) (6, 3.86002898216247558594e-01) (7, 5.82710027694702148438e-01) (8, 5.78469336032867431641e-01) (9, 3.92111808061599731445e-01) (10, 4.54456746578216552734e-01) (11, 4.72918391227722167969e-01) (0, 3.39890014648437500000e+02) (1, 1.18231678009033203125e+00) (2, 4.77477550506591796875e-01) (3, 4.69480425119400024414e-01) (4, 4.59555894136428833008e-01) (5, 4.04249817132949829102e-01) (6, 3.74832421541213989258e-01) (7, 4.11905348300933837891e-01) (8, 4.91144037246704101562e+00) (9, 4.40305739641189575195e-01) (10, 7.84975647926330566406e-01) (11, 4.17081505060195922852e-01) (0, -3.64532356262207031250e+01) (1, 5.46594083309173583984e-01) (2, -5.60437627136707305908e-02) (3, -4.83176670968532562256e-03) (4, -7.04576820135116577148e-02) (5, -2.37970381975173950195e-01) (6, 9.96221229434013366699e-02) (7, 3.47163267433643341064e-02) (8, -6.35564267635345458984e-01) (9, 2.78959963470697402954e-02) (10, 4.00912724435329437256e-02) (11, 8.64803194999694824219e-02) (0, -1.71509361267089843750e+01) (1, 7.01445102691650390625e-01) (2, 3.82523268461227416992e-01) (3, 3.71640741825103759766e-01) (4, 3.21841210126876831055e-01) (5, 6.37466609477996826172e-01) (6, 5.26152312755584716797e-01) (7, 4.17363226413726806641e-01) (8, 3.07847082614898681641e-01) (9, 3.66331011056900024414e-01) (10, 4.42962080240249633789e-01) (11, 2.55573838949203491211e-01) (0, 1.08631191253662109375e+01) (1, 3.93764644861221313477e-01) (2, 1.59712822642177343369e-03) (3, -3.70364338159561157227e-02) (4, 4.70026507973670959473e-02) (5, 1.84703189879655838013e-02) (6, 1.52194932103157043457e-01) (7, -1.01366214454174041748e-01) (8, -8.75198021531105041504e-02) (9, -3.55547890067100524902e-02) (10, 3.27354073524475097656e-02) (11, -9.89748537540435791016e-02) (0, -4.36057043075561523438e+00) (1, 4.33100089430809020996e-02) (2, 3.84542256593704223633e-01) (3, 5.21716058254241943359e-01) (4, 4.24427568912506103516e-01) (5, 3.08113723993301391602e-01) (6, 4.28209722042083740234e-01) (7, 5.91509699821472167969e-01) (8, 5.42235195636749267578e-01) (9, 4.89151030778884887695e-01) (10, 4.78242754936218261719e-01) (11, 4.25900518894195556641e-01) (0, 4.35789585113525390625e+00) (1, 2.47391790151596069336e-01) (2, -1.04548856616020202637e-02) (3, -3.35005342960357666016e-01) (4, -1.70544445514678955078e-01) (5, -5.24307668209075927734e-01) (6, -5.28908297419548034668e-02) (7, -1.99803978204727172852e-01) (8, -2.18629166483879089355e-02) (9, -6.57152906060218811035e-02) (10, 3.84661443531513214111e-02) (11, -1.34820088744163513184e-01) (0, -3.21336479187011718750e+01) (1, 1.51399612426757812500e+00) (2, -2.09902301430702209473e-02) (3, 2.00654998421669006348e-01) (4, 1.60385929048061370850e-02) (5, -5.68477478027343750000e+01) (6, 8.93716990947723388672e-01) (7, 1.78077176213264465332e-01) (8, 1.24973379075527191162e-01) (9, -4.22502197325229644775e-02) (10, -1.73435842990875244141e+00) (11, 5.66191747784614562988e-02) (0, 2.33171672821044921875e+01) (1, 1.03752970695495605469e+00) (2, -8.44204574823379516602e-02) (3, -8.38266015052795410156e-02) (4, 3.11507195234298706055e-01) (5, 1.85049384832382202148e-01) (6, -6.70035257935523986816e-02) (7, -6.97932615876197814941e-02) (8, -3.30537915229797363281e+00) (9, -5.84419369697570800781e-02) (10, -1.03814192116260528564e-01) (11, -2.02933400869369506836e-01) (0, -3.19009918212890625000e+02) (1, 7.23702669143676757812e-01) (2, 6.45661950111389160156e-01) (3, -2.78264832496643066406e+00) (4, -4.79475706815719604492e-02) (5, -6.29394829273223876953e-01) (6, 4.48049366474151611328e-01) (7, 8.85810613632202148438e-01) (8, -2.30372995138168334961e-01) (9, 8.39492529630661010742e-02) (10, 5.90610411018133163452e-03) (11, 1.44594550132751464844e+00) (0, -1.39820816040039062500e+02) (1, -3.51627349853515625000e-01) (2, 8.11904072761535644531e-02) (3, -2.24836558103561401367e-01) (4, 2.26444937288761138916e-02) (5, -1.64407163858413696289e-01) (6, -8.77787917852401733398e-02) (7, 3.36981475353240966797e-01) (8, -1.95492863655090332031e-01) (9, 1.66633957996964454651e-03) (10, -4.80538271367549896240e-02) (11, 4.92439061403274536133e-01) (0, -1.53664077758789062500e+02) (1, 7.65826344490051269531e-01) (2, 1.72645643353462219238e-01) (3, -2.14831665158271789551e-01) (4, 8.92376154661178588867e-03) (5, -2.19915717840194702148e-01) (6, 1.65343299508094787598e-01) (7, 4.44595962762832641602e-01) (8, -2.06270262598991394043e-01) (9, 1.00811598822474479675e-02) (10, -6.06017652899026870728e-04) (11, 3.50396215915679931641e-01) (0, -4.70616769790649414062e+00) (1, 7.01231285929679870605e-02) (2, 4.86470341682434082031e-01) (3, 4.83599752187728881836e-01) (4, 5.57208418846130371094e-01) (5, 5.44447541236877441406e-01) (6, 3.90008747577667236328e-01) (7, 4.23394381999969482422e-01) (8, 5.64872324466705322266e-01) (9, 4.41417068243026733398e-01) (10, 3.94330620765686035156e-01) (11, 5.08579313755035400391e-01) (0, -1.64966087341308593750e+01) (1, 7.37685620784759521484e-01) (2, 4.39245164394378662109e-01) (3, 3.14909517765045166016e-01) (4, 4.38227951526641845703e-01) (5, 4.54342424869537353516e-01) (6, 3.98678749799728393555e-01) (7, 4.26703423261642456055e-01) (8, 4.02543753385543823242e-01) (9, 3.03335428237915039062e-01) (10, 3.29685330390930175781e-01) (11, 4.36954438686370849609e-01) (0, -2.15804805755615234375e+01) (1, 2.03290677070617675781e+00) (2, 7.76120722293853759766e-02) (3, 7.52928555011749267578e-02) (4, -9.48642790317535400391e-02) (5, -1.07316529750823974609e+00) (6, 3.91179881989955902100e-02) (7, -6.59757405519485473633e-02) (8, 6.46995902061462402344e-02) (9, 1.95917710661888122559e-02) (10, -1.16462953388690948486e-01) (11, 9.26883369684219360352e-02) (0, -1.51353073120117187500e+02) (1, 5.96800446510314941406e-01) (2, 1.55356884002685546875e-01) (3, -1.61404371261596679688e-01) (4, -4.99157086014747619629e-02) (5, -3.00150841474533081055e-01) (6, 1.32063731551170349121e-01) (7, 4.38281416893005371094e-01) (8, -2.05659508705139160156e-01) (9, 4.01932187378406524658e-02) (10, 4.38492093235254287720e-03) (11, 3.80600452423095703125e-01) (0, 3.13564229011535644531e+00) (1, 7.83878117799758911133e-02) (2, -1.95467054843902587891e-01) (3, -4.19437587261199951172e-02) (4, -4.78240773081779479980e-02) (5, 2.11433351039886474609e-01) (6, -4.70007210969924926758e-03) (7, -1.35233879089355468750e-01) (8, -3.61338675022125244141e-01) (9, -6.72553926706314086914e-02) (10, -2.21030503511428833008e-01) (11, -1.30546048283576965332e-01) (0, -4.38779497146606445312e+00) (1, -1.88540797680616378784e-02) (2, 5.21534085273742675781e-01) (3, 5.79114675521850585938e-01) (4, 5.68698823451995849609e-01) (5, 5.74625432491302490234e-01) (6, 3.02558422088623046875e-01) (7, 4.31093633174896240234e-01) (8, 4.86272633075714111328e-01) (9, 4.20556038618087768555e-01) (10, 3.98594915866851806641e-01) (11, 5.22795081138610839844e-01) (0, -1.45079927444458007812e+01) (1, 1.24162726104259490967e-01) (2, 3.60453456640243530273e-01) (3, 5.53728163242340087891e-01) (4, 1.85941696166992187500e-01) (5, 7.16628506779670715332e-02) (6, 2.39390298724174499512e-01) (7, 5.65589070320129394531e-01) (8, 1.18274696171283721924e-01) (9, 2.31845825910568237305e-01) (10, 2.09591075778007507324e-01) (11, 6.58412933349609375000e-01) (0, -4.47554540634155273438e+00) (1, -7.69095495343208312988e-02) (2, 4.66409087181091308594e-01) (3, 4.81369674205780029297e-01) (4, 5.55892586708068847656e-01) (5, 6.04580342769622802734e-01) (6, 3.84171187877655029297e-01) (7, 5.24783372879028320312e-01) (8, 4.56209361553192138672e-01) (9, 4.69892650842666625977e-01) (10, 3.82222175598144531250e-01) (11, 4.88439023494720458984e-01) (0, -4.71904611587524414062e+00) (1, -3.77510599792003631592e-02) (2, 4.82678532600402832031e-01) (3, 6.16981983184814453125e-01) (4, 4.74785208702087402344e-01) (5, 3.32678467035293579102e-01) (6, 2.95372247695922851562e-01) (7, 5.45266389846801757812e-01) (8, 4.61558103561401367188e-01) (9, 5.17498195171356201172e-01) (10, 4.27208960056304931641e-01) (11, 5.19416749477386474609e-01) (0, -1.74162197113037109375e+01) (1, 6.97791337966918945312e-01) (2, 4.55891340970993041992e-01) (3, 2.41030454635620117188e-01) (4, 3.31179022789001464844e-01) (5, 7.88219511508941650391e-01) (6, 2.98223137855529785156e-01) (7, 4.22930985689163208008e-01) (8, 3.57026576995849609375e-01) (9, 3.45303595066070556641e-01) (10, 4.53171938657760620117e-01) (11, 3.10091733932495117188e-01) (0, -1.70535354614257812500e+01) (1, 7.74356365203857421875e-01) (2, 4.58011418581008911133e-01) (3, 4.01400148868560791016e-01) (4, 2.72086054086685180664e-01) (5, 7.78851747512817382812e-01) (6, 3.67568790912628173828e-01) (7, 2.73355334997177124023e-01) (8, 3.70765060186386108398e-01) (9, 3.84926557540893554688e-01) (10, 4.43973481655120849609e-01) (11, 4.30697560310363769531e-01) (0, 5.43348908424377441406e-01) (1, -2.13197922706604003906e+00) (2, 2.41973191499710083008e-01) (3, 6.90972745418548583984e-01) (4, -6.11298233270645141602e-02) (5, -4.55092996358871459961e-01) (6, -9.42366957664489746094e-01) (7, 3.70071649551391601562e-01) (8, -2.24045254290103912354e-02) (9, -7.51105621457099914551e-02) (10, -2.04899236559867858887e-01) (11, 3.10137927532196044922e-01) (0, 2.33875465393066406250e+00) (1, 1.13716972991824150085e-02) (2, 2.28266805410385131836e-01) (3, -4.49589824676513671875e+00) (4, -3.89828234910964965820e-02) (5, 1.38371562957763671875e+00) (6, -1.23514041304588317871e-01) (7, -2.45873212814331054688e-01) (8, 4.77277077734470367432e-02) (9, -1.45216882228851318359e-01) (10, 1.94305237382650375366e-02) (11, -3.27362835407257080078e-01) (0, 3.80746793746948242188e+00) (1, -9.60958600044250488281e-02) (2, -3.46686333417892456055e-01) (3, -1.85347712039947509766e+00) (4, -7.08114355802536010742e-02) (5, 2.19363975524902343750e+00) (6, -6.63408562541007995605e-02) (7, -7.87151098251342773438e-01) (8, -4.84896540641784667969e-01) (9, -1.76030889153480529785e-01) (10, -1.81661918759346008301e-01) (11, -9.64848458766937255859e-01) (0, 7.08257980346679687500e+01) (1, 1.20107102394104003906e+00) (2, 4.22124594449996948242e-01) (3, 3.65384638309478759766e-01) (4, 3.66054177284240722656e-01) (5, 8.22783529758453369141e-01) (6, 3.77179265022277832031e-01) (7, 4.42921906709671020508e-01) (8, 3.07232260704040527344e-01) (9, 3.85283142328262329102e-01) (10, 4.74559694528579711914e-01) (11, 4.06547546386718750000e-01) (0, 1.21211547851562500000e+01) (1, -8.66004377603530883789e-02) (2, -2.25466400384902954102e-01) (3, -1.21678590774536132812e+01) (4, -1.08633145689964294434e-01) (5, -9.76986289024353027344e-02) (6, -2.00701698660850524902e-01) (7, -7.73123621940612792969e-01) (8, -2.05802395939826965332e-01) (9, -2.15238541364669799805e-01) (10, -1.13348148763179779053e-01) (11, -1.50904059410095214844e+00) (0, 4.12566995620727539062e+00) (1, 5.38290664553642272949e-02) (2, -6.50905594229698181152e-02) (3, -1.64155274629592895508e-01) (4, -2.00854074209928512573e-02) (5, -6.33086115121841430664e-02) (6, -1.31262719631195068359e-01) (7, -1.86511248350143432617e-01) (8, -3.76913845539093017578e-02) (9, -2.03797873109579086304e-02) (10, 2.06691324710845947266e-02) (11, -2.29963719844818115234e-01) (0, 1.31038827896118164062e+01) (1, 2.85725921392440795898e-01) (2, -2.08763808012008666992e-01) (3, -1.21107053756713867188e+00) (4, -6.27408772706985473633e-02) (5, -4.75300639867782592773e-01) (6, -5.51751777529716491699e-02) (7, -2.39031597971916198730e-01) (8, -2.53476381301879882812e-01) (9, -8.50012451410293579102e-02) (10, -1.46936923265457153320e-01) (11, -2.95736372470855712891e-01) (0, -4.25114345550537109375e+00) (1, 4.60442565381526947021e-02) (2, 5.11742889881134033203e-01) (3, 5.44331908226013183594e-01) (4, 3.69307100772857666016e-01) (5, 2.54124969244003295898e-01) (6, 4.25260663032531738281e-01) (7, 4.48355674743652343750e-01) (8, 5.17766058444976806641e-01) (9, 5.00342428684234619141e-01) (10, 4.68830764293670654297e-01) (11, 5.13403296470642089844e-01) (0, -7.62111186981201171875e-01) (1, 2.03490376472473144531e-01) (2, 3.21098059415817260742e-01) (3, 4.44413185119628906250e-01) (4, 2.91527569293975830078e-01) (5, 2.91199889034032821655e-02) (6, 3.62602710723876953125e-01) (7, 3.47649872303009033203e-01) (8, 3.46933305263519287109e-01) (9, 2.01026394963264465332e-01) (10, 2.18817338347434997559e-01) (11, 3.51708620786666870117e-01) (0, -1.18138217926025390625e+00) (1, 7.79832899570465087891e-02) (2, 1.88678145408630371094e-01) (3, 3.32308113574981689453e-01) (4, 3.21905970573425292969e-01) (5, 1.20856411755084991455e-01) (6, 2.06906318664550781250e-01) (7, 2.96397417783737182617e-01) (8, 3.41033548116683959961e-01) (9, 3.56372594833374023438e-01) (10, 2.65186160802841186523e-01) (11, 4.04947161674499511719e-01) (0, 7.07571105957031250000e+01) (1, 1.24969172477722167969e+00) (2, 4.34191048145294189453e-01) (3, 3.91312241554260253906e-01) (4, 4.69839751720428466797e-01) (5, 7.09930539131164550781e-01) (6, 3.93446296453475952148e-01) (7, 2.52818882465362548828e-01) (8, 2.87132889032363891602e-01) (9, 4.54807549715042114258e-01) (10, 4.46244865655899047852e-01) (11, 3.60380291938781738281e-01) (0, -4.69681644439697265625e+00) (1, 2.15508267283439636230e-02) (2, 5.74498534202575683594e-01) (3, 5.18760800361633300781e-01) (4, 5.07052719593048095703e-01) (5, 4.75706249475479125977e-01) (6, 3.49102973937988281250e-01) (7, 5.51670312881469726562e-01) (8, 4.43396657705307006836e-01) (9, 5.02772212028503417969e-01) (10, 3.71900320053100585938e-01) (11, 4.19412076473236083984e-01) (0, -1.74300346374511718750e+01) (1, 6.84079527854919433594e-01) (2, 3.13993513584136962891e-01) (3, 3.81041973829269409180e-01) (4, 4.52317476272583007812e-01) (5, 9.20881152153015136719e-01) (6, 3.96445572376251220703e-01) (7, 4.40141171216964721680e-01) (8, 3.11328887939453125000e-01) (9, 3.18827003240585327148e-01) (10, 4.19347733259201049805e-01) (11, 2.69819527864456176758e-01) (0, -4.07976293563842773438e+00) (1, -1.09532430768013000488e-01) (2, 4.19656723737716674805e-01) (3, 6.21827960014343261719e-01) (4, 3.72857987880706787109e-01) (5, 3.88573795557022094727e-01) (6, 3.08262884616851806641e-01) (7, 5.25345206260681152344e-01) (8, 5.36425352096557617188e-01) (9, 4.46948796510696411133e-01) (10, 5.22661805152893066406e-01) (11, 4.78960990905761718750e-01) (0, -4.03208160400390625000e+00) (1, -5.09988814592361450195e-02) (2, 3.94485086202621459961e-01) (3, 6.50338530540466308594e-01) (4, 5.41810572147369384766e-01) (5, 4.45081263780593872070e-01) (6, 4.26328897476196289062e-01) (7, 4.47372436523437500000e-01) (8, 4.63687926530838012695e-01) (9, 4.19574350118637084961e-01) (10, 3.92260313034057617188e-01) (11, 4.52455520629882812500e-01) (0, -2.25399658203125000000e+02) (1, 1.31606113910675048828e+00) (2, 3.14832152798771858215e-03) (3, -1.62948101758956909180e-01) (4, -4.48539070785045623779e-02) (5, -1.07851278781890869141e+00) (6, -3.17749072564765810966e-04) (7, 1.96671888232231140137e-01) (8, -1.35308757424354553223e-01) (9, 3.41603644192218780518e-02) (10, 2.37895287573337554932e-02) (11, 2.67108112573623657227e-01) (0, -4.08478784561157226562e+00) (1, 3.63749489188194274902e-02) (2, 4.98721420764923095703e-01) (3, 4.95303511619567871094e-01) (4, 3.74931097030639648438e-01) (5, 5.00555515289306640625e-01) (6, 3.29860806465148925781e-01) (7, 5.20339369773864746094e-01) (8, 5.47857105731964111328e-01) (9, 4.87825363874435424805e-01) (10, 4.49001908302307128906e-01) (11, 5.25754094123840332031e-01) (0, -4.41263055801391601562e+00) (1, -4.72010783851146697998e-02) (2, 5.36273539066314697266e-01) (3, 6.52934730052947998047e-01) (4, 4.63950335979461669922e-01) (5, 3.79937648773193359375e-01) (6, 2.60985255241394042969e-01) (7, 4.82942521572113037109e-01) (8, 4.98966544866561889648e-01) (9, 4.45199519395828247070e-01) (10, 4.61109757423400878906e-01) (11, 5.42702734470367431641e-01) (0, -1.73111629486083984375e+01) (1, 8.05180788040161132812e-01) (2, 3.43309074640274047852e-01) (3, 2.80025064945220947266e-01) (4, 3.16993445158004760742e-01) (5, 9.31443452835083007812e-01) (6, 3.71443688869476318359e-01) (7, 3.68931353092193603516e-01) (8, 3.95355194807052612305e-01) (9, 4.04944151639938354492e-01) (10, 4.30412799119949340820e-01) (11, 3.56067717075347900391e-01) (0, -1.12189550399780273438e+01) (1, 3.71538460254669189453e-01) (2, -4.17580343782901763916e-02) (3, 7.04956799745559692383e-02) (4, 2.60793324559926986694e-02) (5, -2.65570402145385742188e-01) (6, 6.72268029302358627319e-03) (7, -4.80544101446866989136e-03) (8, 3.97532582283020019531e-02) (9, -2.43876501917839050293e-02) (10, -6.88675716519355773926e-02) (11, 3.24985161423683166504e-02) (0, 5.27196931838989257812e+00) (1, -1.48451151326298713684e-02) (2, -8.38686674833297729492e-02) (3, -2.10483402013778686523e-01) (4, -1.02944836020469665527e-01) (5, -1.39050155878067016602e-01) (6, -1.32067397236824035645e-01) (7, -1.64365112781524658203e-01) (8, -1.79487496614456176758e-01) (9, -6.32787272334098815918e-02) (10, 1.32975052110850811005e-03) (11, -2.60595828294754028320e-01) (0, 1.15270719528198242188e+01) (1, 2.15264007449150085449e-01) (2, 9.11640748381614685059e-03) (3, -2.09508493542671203613e-01) (4, -1.77707220427691936493e-03) (5, -1.42425848171114921570e-02) (6, 4.17210310697555541992e-02) (7, -1.02732228115200996399e-02) (8, -7.31904699932783842087e-04) (9, 2.99594178795814514160e-03) (10, 1.09562724828720092773e-02) (11, -1.16381786763668060303e-01) (0, 1.17558784484863281250e+01) (1, 2.04937502741813659668e-01) (2, 6.64802610874176025391e-01) (3, -2.73913964629173278809e-02) (4, 2.47073218226432800293e-01) (5, -2.83770608901977539062e+00) (6, 2.96580648422241210938e+00) (7, 1.09612569212913513184e-02) (8, -8.00490498542785644531e-01) (9, 1.64164632558822631836e-01) (10, -1.64853739738464355469e+00) (11, -9.28272083401679992676e-02) (0, -4.21759748458862304688e+00) (1, 5.26758097112178802490e-02) (2, 4.15251344442367553711e-01) (3, 5.05183160305023193359e-01) (4, 4.94990795850753784180e-01) (5, 2.01114773750305175781e-01) (6, 3.32008719444274902344e-01) (7, 4.55647945404052734375e-01) (8, 4.25283938646316528320e-01) (9, 4.68743294477462768555e-01) (10, 4.51545774936676025391e-01) (11, 5.92888236045837402344e-01) (0, -4.16973447799682617188e+00) (1, -6.43457025289535522461e-02) (2, 5.59708595275878906250e-01) (3, 6.70308470726013183594e-01) (4, 4.14467275142669677734e-01) (5, 3.44006627798080444336e-01) (6, 3.39994132518768310547e-01) (7, 5.69209754467010498047e-01) (8, 4.15621727705001831055e-01) (9, 4.35059517621994018555e-01) (10, 4.33430969715118408203e-01) (11, 5.23336529731750488281e-01) (0, 7.56518983840942382812e+00) (1, -1.07583713531494140625e+01) (2, 2.20190554857254028320e-01) (3, 2.21218776702880859375e+00) (4, -1.90365388989448547363e-01) (5, 1.78697061538696289062e+00) (6, -8.21239575743675231934e-02) (7, 2.44488999247550964355e-01) (8, 1.41819393634796142578e+00) (9, -4.30023707449436187744e-02) (10, -3.07867735624313354492e-01) (11, 2.51002043485641479492e-01) (0, -3.80206584930419921875e+00) (1, 2.58315112441778182983e-02) (2, 4.49593722820281982422e-01) (3, 6.58837199211120605469e-01) (4, 3.85681271553039550781e-01) (5, 5.80544769763946533203e-01) (6, 4.08609300851821899414e-01) (7, 4.40347373485565185547e-01) (8, 4.13307696580886840820e-01) (9, 5.31392753124237060547e-01) (10, 3.88902127742767333984e-01) (11, 4.64651942253112792969e-01) (0, -1.80192977905273437500e+02) (1, 1.50037002563476562500e+00) (2, -1.79506614804267883301e-02) (3, -2.14301571249961853027e-01) (4, 7.59517028927803039551e-02) (5, -2.62856006622314453125e-01) (6, -3.99754159152507781982e-02) (7, 1.51290386915206909180e-01) (8, 2.83430442214012145996e-02) (9, -2.85377004183828830719e-03) (10, -7.75590017437934875488e-02) (11, 1.44482001662254333496e-01) (0, -5.03414535522460937500e+00) (1, 1.50295216590166091919e-02) (2, 5.73534846305847167969e-01) (3, 5.50680577754974365234e-01) (4, 4.56627190113067626953e-01) (5, 4.69293028116226196289e-01) (6, 3.37655425071716308594e-01) (7, 4.56874787807464599609e-01) (8, 5.67469716072082519531e-01) (9, 5.53009569644927978516e-01) (10, 3.95149528980255126953e-01) (11, 4.15292471647262573242e-01) (0, 2.09776107788085937500e+02) (1, 1.37294197082519531250e+00) (2, 2.54145860671997070312e+00) (3, 3.09197306632995605469e-01) (4, 4.17508929967880249023e-01) (5, 1.02449977397918701172e+00) (6, 5.25321960449218750000e-01) (7, 2.92522132396697998047e-01) (8, 1.06393206119537353516e+00) (9, 4.62042838335037231445e-01) (10, 4.26405727863311767578e-01) (11, 4.03920859098434448242e-01) (0, -1.69009361267089843750e+01) (1, 7.86735653877258300781e-01) (2, 3.96772235631942749023e-01) (3, 2.76049703359603881836e-01) (4, 4.61483597755432128906e-01) (5, 4.16043549776077270508e-01) (6, 5.33076643943786621094e-01) (7, 4.04358327388763427734e-01) (8, 3.45623046159744262695e-01) (9, 4.41388934850692749023e-01) (10, 3.21474730968475341797e-01) (11, 3.85301113128662109375e-01) (0, -3.86568379402160644531e+00) (1, 1.70038845390081405640e-02) (2, 3.83259028196334838867e-01) (3, 5.03644764423370361328e-01) (4, 4.60048973560333251953e-01) (5, 2.29104459285736083984e-01) (6, 2.74935603141784667969e-01) (7, 4.14783298969268798828e-01) (8, 4.35825914144515991211e-01) (9, 4.58814114332199096680e-01) (10, 4.97616499662399291992e-01) (11, 5.77351212501525878906e-01) (0, -1.61489696502685546875e+01) (1, 7.66166806221008300781e-01) (2, 4.57625031471252441406e-01) (3, 3.62401813268661499023e-01) (4, 3.81060123443603515625e-01) (5, 3.93629670143127441406e-01) (6, 4.04068827629089355469e-01) (7, 4.30427193641662597656e-01) (8, 3.32654774188995361328e-01) (9, 4.48623746633529663086e-01) (10, 3.02266091108322143555e-01) (11, 2.73265510797500610352e-01) (0, -2.26747378706932067871e-01) (1, 3.51654320955276489258e-01) (2, 2.60500162839889526367e-01) (3, 4.06737536191940307617e-01) (4, 1.96147918701171875000e-01) (5, 7.02213191986083984375e+00) (6, 3.48899453878402709961e-01) (7, 3.38520526885986328125e-01) (8, 3.49317878484725952148e-01) (9, 3.54335993528366088867e-01) (10, 2.45942011475563049316e-01) (11, 3.59244287014007568359e-01) (0, 1.75112686157226562500e+01) (1, -3.68892997503280639648e-01) (2, -1.10664799809455871582e-01) (3, 7.70190536975860595703e-01) (4, 1.21495239436626434326e-01) (5, 1.97504198551177978516e+00) (6, 1.53176873922348022461e-01) (7, -2.53071606159210205078e-01) (8, 2.72849768400192260742e-01) (9, 3.19775864481925964355e-02) (10, -2.04542541503906250000e+00) (11, -3.49562168121337890625e-01) (0, -1.33055515289306640625e+01) (1, -1.14249372854828834534e-02) (2, -7.36059900373220443726e-03) (3, -9.41945612430572509766e-02) (4, -1.61350728012621402740e-03) (5, -2.90145844221115112305e-01) (6, 1.06303729116916656494e-01) (7, -9.96131449937820434570e-04) (8, -3.29328835010528564453e-01) (9, 1.08030155301094055176e-01) (10, -5.12525849044322967529e-02) (11, 7.36724659800529479980e-02) (0, 3.13004255294799804688e+00) (1, 1.41764134168624877930e-01) (2, -7.45558515191078186035e-02) (3, -3.21505405008792877197e-02) (4, -7.58085846900939941406e-02) (5, -6.51532635092735290527e-02) (6, -9.50661227107048034668e-02) (7, -1.54750630259513854980e-01) (8, -1.10985234379768371582e-01) (9, -6.83401003479957580566e-02) (10, -5.64124770462512969971e-02) (11, -1.48963630199432373047e-01) (12, 3.86093616485595703125e-01) (13, 4.79754984378814697266e-01) (14, 4.15585666894912719727e-01) (15, 4.85330045223236083984e-01) (16, -4.24868762493133544922e-01) (17, 4.51857686042785644531e-01) (18, -9.18366163969039916992e-02) (19, -6.22751787304878234863e-02) (20, 7.62044072151184082031e-01) (21, 3.70831996202468872070e-01) (22, 4.71857726573944091797e-01) (23, -1.18212722241878509521e-01) (24, 4.30708050727844238281e-01) (25, 4.56501722335815429688e-01) (26, -1.80217698216438293457e-02) (27, 5.43607532978057861328e-01) (28, 4.25266176462173461914e-01) (29, 4.92580354213714599609e-01) (30, 4.03842061758041381836e-01) (31, -2.15159058570861816406e-01) (32, 1.95077490806579589844e+00) (33, 3.59565436840057373047e-01) (34, 4.62774962186813354492e-01) (35, 4.03686195611953735352e-01) (36, -4.82194088399410247803e-02) (37, -8.87568444013595581055e-02) (38, -2.32886448502540588379e-02) (39, 2.81075030565261840820e-01) (40, -6.40505105257034301758e-02) (41, 4.20347213745117187500e-01) (42, -1.64230182766914367676e-01) (43, -3.01597118377685546875e-02) (44, -1.50847518816590309143e-02) (45, 5.80881237983703613281e-01) (46, 8.68375420570373535156e-01) (47, 3.69876623153686523438e-01) (48, 4.76226687431335449219e-01) (49, -9.43801030516624450684e-02) (50, 4.87047463655471801758e-01) (51, -1.20503529906272888184e-01) (52, -5.83514310419559478760e-02) (53, 3.94949406385421752930e-01) (54, -3.90986204147338867188e-02) (55, 3.78174960613250732422e-01) (56, 5.50437748432159423828e-01) (57, -7.67031013965606689453e-02) (58, 4.23052191734313964844e-01) (59, -3.16006398200988769531e+00) (60, 4.94293034076690673828e-01) (61, -8.67344498634338378906e-01) (62, 4.23785477876663208008e-01) (63, -4.01921123266220092773e-02) (64, -7.85296633839607238770e-02) (65, 3.74620258808135986328e-01) (66, -4.84239235520362854004e-02) (67, -5.23775517940521240234e-02) (68, 4.50104683637619018555e-01) (69, -7.80742466449737548828e-02) (70, -2.46544703841209411621e-02) (71, -8.76276940107345581055e-02) (72, -9.02271121740341186523e-02) (73, 4.18385237455368041992e-01) (74, 3.62860620021820068359e-01) (75, -1.03539478778839111328e+00) (76, 4.26571398973464965820e-01) (77, 4.27095085382461547852e-01) (78, 3.59257549047470092773e-01) (79, 5.11089563369750976562e-01) (80, 4.18402373790740966797e-01) (81, 4.05846893787384033203e-01) (82, -8.19979757070541381836e-02) (83, -3.20063978433609008789e-02) (84, -3.42132113873958587646e-02) (85, 4.14936393499374389648e-01) (86, -8.68017524480819702148e-02) (87, 4.09629553556442260742e-01) (88, -8.98796766996383666992e-02) (89, -6.23079016804695129395e-02) (90, -1.40986204147338867188e-01) (91, -7.15597048401832580566e-02) (92, -6.20847418904304504395e-02) (93, 3.43406677246093750000e-01) (94, -9.13047790527343750000e-02) (95, 4.60178643465042114258e-01) (96, 1.01799309253692626953e+00) (97, 5.85096180438995361328e-01) (98, -4.99087534844875335693e-02) (99, -9.36097651720046997070e-02) (100, -9.61173236370086669922e-01) (101, -6.92151635885238647461e-02) (102, -9.80999916791915893555e-02) (103, -9.91755872964859008789e-02) (104, 3.54534655809402465820e-01) (105, 3.93259584903717041016e-01) (106, -1.05407521128654479980e-01) (107, 3.79389822483062744141e-01) (108, -2.30034217238426208496e-02) (109, 4.41533118486404418945e-01) (110, -5.34426830708980560303e-02) (111, 3.93885046243667602539e-01) (112, 2.81800240278244018555e-01) 
